10 100
0 -0.004868437 0.003906128 -0.0031716495 -0.0049992693 -0.0004839562 0.0018664785 -0.0017417578 -0.002796815 -0.0020290809 -0.0045229313 -0.002746064 0.002649258 0.00014442252 -0.0016445059 0.0011123437 0.0043620225 0.0032766731 0.0018137884 -0.004552952 -0.0027934848 0.0017055892 -0.0042130062 0.0019856868 0.0021311068 0.0017947229 -0.004971885 0.0038614804 0.00034134975 0.0030088276 -0.0032924432 -0.0026856 -0.003932747 -0.00021236669 -0.0011075903 0.0017837156 0.0014129798 -0.0040511237 0.0046423348 0.001899464 -0.004623116 -0.00054346956 -0.0022848898 -0.001236385 0.0041278806 0.0036899988 0.004287204 0.0021684612 0.0008632778 0.0044534905 -0.003953581 -0.002211319 1.9767787e-05 -0.0031590944 0.00034958962 0.004131655 0.00051109307 0.0021297825 0.0033152197 -0.000753867 0.002947649 -0.00022534188 -0.0014275587 -0.003501032 0.0045774914 2.6124064e-05 0.00015212828 -0.0014352733 0.0031633815 -0.0025778604 -0.004542983 0.0013636653 0.0038509974 0.0002810792 -0.004090308 -0.0038508493 0.0017577801 0.0044764914 0.00084318593 0.0045360224 -0.00037805317 0.0016039163 -0.00113043 0.00096649304 -0.002282492 0.0013593985 0.00056629954 -0.0019779222 0.0028294092 0.00395522 0.0024223714 -0.0013248115 -0.0025879042 -0.0005900506 0.004420668 -0.0038322425 0.0032002004 0.00422448 -0.002489597 -0.0010730368 -0.0030601923
1 0.0038773008 0.0022706236 0.0042980714 -0.0049964874 0.0018645199 -0.004115835 -0.0041734967 0.004369431 0.002788173 -0.00070923194 -0.0019538396 0.00069043227 0.0027979738 -0.0020901805 0.0019122725 -0.004624488 -0.00090246694 0.002455383 0.0045180917 -0.0027230447 -0.0013293528 0.00023878086 -0.00014395453 -0.004127501 5.123485e-05 0.004552667 -0.0024668907 0.0029881885 0.0030330876 0.0020213448 0.0036269482 0.0034578713 0.0035480335 0.0017593424 0.0014449004 0.004160139 -0.00017398037 -0.0044796024 0.00043804478 0.004698394 -0.004628469 0.0020048488 -0.00033640815 -0.00067664543 0.0011663307 -0.0017131697 -0.0013058751 0.001143123 -0.0013284159 -0.0012571269 0.0049997196 -0.0047290684 0.0007404075 -0.0022439915 0.0038150651 0.00086143427 0.0014821053 -0.0010298146 -0.0030445415 -0.0012024867 0.00089915795 -0.0040007504 0.0043673655 0.0042076055 -0.0009575272 0.0047450103 -0.000950587 0.0031904317 0.00054528704 0.0033388399 0.0026152777 -0.0017112845 0.004695151 -0.00023148488 0.0025357003 2.2274442e-05 0.0006007836 0.0015362571 0.0023576487 0.001292929 0.0011937944 -0.004761663 -0.003842445 -0.00041068532 -0.0028615713 -0.0037914948 0.0033386517 0.0039942516 -0.003049985 0.004488428 0.0005604094 0.0014371127 0.0007299995 -0.003921693 -0.0022478139 0.0016079703 0.0030859169 0.0006209854 -0.0041544996 0.002255987
2 -0.0014764064 -0.00034222612 -0.0004635225 0.0014999951 -0.0030102688 0.0015710872 -0.004750312 0.0006455993 3.9321836e-05 -0.003100513 -0.0033848607 -0.0018237161 0.0023444486 0.0006881468 -0.0019078082 -0.0028302292 0.0029022386 -0.0032176012 -0.0048522605 0.0005207942 0.0017918483 0.00053909654 0.0045120614 -0.004050734 0.003979885 0.0048180586 0.0041469466 0.0024409788 0.0028467793 -0.0029428808 -0.0031061005 0.0047262646 -0.0005755229 -0.0006380379 0.00014260225 0.004370383 0.0005923598 -0.003577345 -0.00047044735 0.0021541147 0.000663504 0.0015998506 -0.0029722464 0.004955438 -0.0049709263 -0.00055195764 0.0026167547 0.0031564636 -8.192938e-05 -0.0002482594 -0.0018919194 0.0025828634 0.0006672889 0.001658503 -0.0015866505 -0.0037217927 0.0024851803 -0.0008284808 0.002108086 0.0028168727 -0.0010574125 -0.004626535 -0.00077513466 0.0033103153 -0.0009827078 -0.0018011879 -0.0028718358 0.0049565397 0.0036963047 0.0015183501 -0.00494045 0.00021658838 -0.002478736 0.0017625056 0.0038203364 -0.0025808227 -0.0025533873 -0.00013886439 0.0002823742 -0.0046289354 0.0021960703 -0.004398512 -0.002694854 0.00301811 -0.0049998155 -0.0011329907 0.0010146135 -0.0029713218 0.004266521 -0.004943853 0.0030958988 -0.002117325 -0.0031377543 0.0028046733 0.0040660314 -0.0033607602 -0.0008147061 -0.0025553475 0.0021139379 0.004400218
3 0.002058845 -0.004674174 0.0021227081 0.0026913444 0.001604748 -0.0021324127 -0.0011740113 0.0021913056 -0.0038194435 0.00039871037 0.0026278691 0.0015257308 0.0026057828 -0.0012698555 -0.0046966732 0.0033737775 -0.0045996117 -0.002897244 -0.00011440879 -0.0006712829 -0.004242987 0.001179257 -0.0027729708 -0.0028329515 -0.0035718982 -0.0019983798 -0.002898904 0.004207194 0.004166547 -0.0040982706 -0.004314723 0.0019620233 -0.00214141 0.0026318077 -0.0011240572 0.00054504117 -0.0007933541 0.00028796028 0.0014133011 0.001680871 -0.0017579554 -0.0026622259 0.0018521519 0.0014854441 -0.0038734553 0.0042970963 0.0019021989 -0.0039522517 0.0035935035 -0.0035476536 -0.0019519585 -0.0033339076 -0.0030806852 -0.0018532269 0.0030794386 0.0047396207 0.003628375 0.0035660733 -0.0027349978 -0.0042226147 0.003974268 0.00016010832 0.0040794993 0.0049439482 0.0040685814 0.002913653 -0.0026606314 -0.002224748 0.0049549267 0.0017355145 -0.0015677027 -0.0016439527 -0.00078923535 -0.0030706893 -0.003129419 -0.00076328637 0.002647074 -0.0009016944 0.0033182008 -0.00024345983 0.0047995597 -0.001587919 -0.00095370784 -0.0018233829 0.0027822051 -0.0019112944 0.00082283793 0.00022389228 0.0025895266 -0.0026822637 0.0023030657 -0.0034133182 0.0040120166 0.0004893583 0.004309303 0.00453382 0.0043420456 -0.00047979597 0.00319493 -0.004650511
4 0.0007387884 -0.00014600344 -0.0014004295 0.0014727749 0.0043581137 -0.00089413114 0.0012760838 0.0036398629 0.00077055255 -2.2603665e-05 0.0005890182 0.0001781215 -0.0015684396 0.0022950904 0.002426825 0.000567378 0.0022954387 -0.00088625913 0.0034787487 -0.0032847757 -0.0022434627 0.0020371825 -0.004747182 -0.001999173 -0.0044042147 -0.004536374 -0.0027165723 0.0011390601 0.004959495 0.0005993955 0.004614561 -0.004312511 0.0045680283 -0.0005369256 -0.0010164524 -0.00030816812 0.00054473523 -0.001424042 0.0032252427 0.0049068322 0.0016315598 0.0039551053 -0.0006859917 0.0013922397 -0.0023540717 0.000443907 0.00051550334 -0.0002830429 0.0009340481 -0.003713719 -0.00424341 0.0014724736 -0.004432392 0.0027116947 0.0048721954 0.003734353 -0.0035673166 -0.0033324794 6.475765e-05 -0.003111009 0.0029156012 -0.0034549818 -0.004005365 -0.0015442669 0.004582703 -0.0035330348 -0.0046193455 -0.004497745 0.0010698899 0.0009010462 -0.004795151 0.0042015323 -0.0019743477 -0.00013179239 -0.00271147 -0.004595934 -0.0029994184 0.003343068 0.003652284 0.0014763093 0.0035069538 -0.004894098 0.0036233189 0.00033999188 -0.0033616244 -0.00037316792 -0.002660581 0.00079481816 0.0028676633 0.00047603901 0.0047267266 -0.0028611613 -0.0006679492 -0.0009462298 0.00048675435 0.004209891 0.0017024796 -0.0026665216 0.0024350942 0.004992199
5 0.0016613961 0.004607559 -0.00011626491 -0.0029923194 -0.0022188143 -0.0025955795 -0.004701405 0.00026462553 0.0047980053 -0.0033362661 0.0046610096 0.003338865 -0.0018534553 0.00024654996 -0.0013630921 -0.004669269 -0.0010386393 0.0018360089 -5.4880977e-05 -0.00067813136 0.002042498 0.00039179623 0.002723089 -0.00013605971 -0.0005509751 0.0006809314 -0.0043755155 -0.0032393646 -0.00076353736 -0.0012656313 -0.0024612169 0.0031226538 -0.0049459133 0.0022615348 0.0019327188 0.0025194068 -0.0012712295 0.0030787531 0.0016203774 -0.0035448342 0.00062268693 -0.0027157061 0.0036911434 -0.0019686227 -0.0033654636 -0.0010918332 0.0034082253 0.0014999355 -0.002763558 -0.002935413 -0.001734172 0.0017740862 0.002769834 0.0016301908 0.0049424414 -0.0015232216 -0.0021387236 0.0027201702 -0.0017390347 -0.0008897064 0.0038567819 0.0038433792 0.0034068488 -0.0003053574 0.004452075 -0.0023705333 0.0015352922 -0.0018488562 -0.003022534 -0.0035310471 -0.0015170937 -0.004464264 -0.0033883117 -0.004139049 0.0038678795 0.00081269024 0.0034317663 0.0038467543 0.003029829 -0.00391771 0.0016579302 -0.004587542 -0.0014156795 -0.0025964968 0.003098527 0.00025648298 -0.0038219045 -0.0036713053 -0.0045483243 0.0042099655 -0.003785982 0.0027053705 0.0016454803 -0.003925775 -0.0009547402 -0.002296372 0.0035905559 -0.00072357757 0.0019287816 0.00455592
6 0.0016676974 0.0006404007 0.002620717 0.003206673 -0.0028738605 0.0028223367 0.001753463 0.0019259504 -0.0032796513 -0.004536434 -0.0041037686 -0.0023641996 -0.0041742474 -0.003760913 0.002747206 -0.0029377628 -0.0012913297 -0.003875365 0.0007796041 -0.0019502419 -0.0026209848 0.0008794712 -0.0034912596 -0.002668587 -0.00411754 0.0038294885 0.004803323 0.0011709314 0.0023973035 0.0015774346 -0.0038668066 -0.0007264442 -0.0044394094 0.003579666 0.00047007017 0.0026125847 0.002551952 0.0043158093 -0.0035298634 0.00025960198 -0.003990282 -0.004477488 0.00027108425 -0.0039628847 0.0033937301 0.0043811956 -0.0010370067 0.0032581491 0.0013280753 -0.0020768999 0.00043576723 0.0043230196 -0.00028001238 -0.004705072 -0.00031130947 0.0016371012 0.0013973536 -0.0026144485 -0.0042941337 -0.002219252 0.002424751 -0.0043132845 0.0026967968 0.0017917561 -0.003746157 0.0012163348 0.0013788017 -0.0018536656 2.6267953e-05 0.0039641242 -0.0023102867 0.002757811 0.0011822418 0.0026576654 0.0011784621 -0.0026833296 0.0027062874 0.0041188914 -0.0035667843 -0.0032991408 0.003650941 0.00023733778 0.0010553775 2.1669082e-05 0.002016245 -0.00059848046 -0.0015164029 -0.00398211 -0.00050007505 -0.004138744 -0.0030161552 -0.004754209 -0.004853261 -0.0046543637 -0.004411019 0.0025132583 0.0013315575 0.001927136 0.0018753652 -0.00067655323
7 0.0026552281 -0.002617321 -0.0039619976 0.00026228745 -0.0012183911 -0.004908623 0.0026712506 -0.004692389 -0.003167597 -0.0026209168 0.00013022777 -0.0035765206 -8.974783e-05 -0.0038012844 -0.0015022205 -0.003188082 0.0011106604 0.001956888 -0.0048617856 -0.0006113136 0.0042744055 -0.0021638363 0.0038956068 -0.0037739866 -0.0016552149 0.0016990984 -0.0013048297 0.0016857893 -0.0043967506 -0.0026090634 0.002784615 0.0047328277 -0.0043220287 0.0041156225 0.0033807028 0.0017083869 0.0011851657 0.0024724216 -0.0034857267 -0.0035736952 0.00015222142 -0.0027914701 -0.00023906212 0.00047556777 -0.00038354052 1.9883737e-05 -0.003871849 8.249283e-05 0.0044692624 -0.0010720496 0.003741065 0.0038336832 -0.0038068085 -0.003402478 -0.003924866 0.004164269 0.0018582796 0.0013885885 0.00050525414 0.0036384966 -0.004564017 0.000843104 0.0029024882 -5.348632e-05 -0.0006058607 0.0020287023 -0.0001503108 -0.0018568765 -0.0004964783 -0.002594077 0.0004766686 0.0048323646 0.0032517584 0.0016474873 0.00039846124 -0.0045310715 -0.00027479045 0.00041827746 -0.0047733635 0.0010038139 -0.0005195737 0.00027047377 -0.004675497 -0.0039696535 0.002541006 0.00092857797 0.0021969238 -0.002461642 0.0007300619 -0.0021838783 -0.0042256694 0.0034863707 0.0021924032 -0.00042363955 0.0027606483 0.0020705988 0.0045208624 -0.0019645523 -0.0026375533 0.0021906127
8 0.0027716765 0.0015175897 -0.002628851 0.0019052625 -0.0027351838 -3.9789826e-05 0.0011821641 -0.0049134535 0.00061499793 0.0012329565 0.0015226351 -0.0028897119 0.0028909352 -3.39197e-05 -0.003038513 -0.00180421 0.002782423 0.0035748277 0.0005700798 0.00068925973 -0.0029002375 0.00030403025 -0.0031133322 -0.002719791 -0.0018895674 0.0039081266 -0.00041200873 -0.00202022 -0.00058961334 -0.0049293386 -0.0026808493 -0.0034068965 0.0023847679 0.0019515473 0.0012267763 0.0014147405 -0.003949879 -0.0013440852 0.000902561 -0.0037998229 0.0032468773 0.0014905329 0.0012773722 0.00088715367 -0.00026807608 -0.0025969385 0.00086276885 0.002359395 -0.0026688427 -0.001377567 0.0036886549 0.003427782 -0.0011215704 0.004195989 -0.004599054 3.354624e-05 0.0016680965 -0.003456837 -0.002974038 0.0026772371 0.00015881052 -0.003226075 -0.0030148989 0.004028364 -0.002417919 -0.0005380963 0.0026566177 -0.0028894925 0.00035227276 -0.004527577 0.003328045 -0.0037049507 0.002988197 0.0028887093 -0.00091453316 0.0028531589 -0.004296525 -0.00015169429 -0.0019383125 0.0032739332 -0.0024653487 0.0010476331 0.0017093499 0.00026262598 -0.0025657474 -0.0008992725 0.0003449577 -0.0002916623 0.001444133 -0.0042709056 -0.0018201959 0.0033630393 0.0038135964 0.0009031836 0.004503859 0.0031634662 -0.004751923 -0.0038567744 -0.00082823075 -0.0048996024
9 -0.003173483 -0.0003724862 -0.004416216 -0.004609225 -0.003306123 -0.00117137 -0.0032915794 0.003972885 0.0014247731 -0.0007721246 4.0773768e-05 0.003224534 0.0009686686 0.0030867262 -0.0034979987 0.0047293175 0.0048715854 0.0010841121 0.002981468 0.0010514772 -0.0027964734 -0.0031884008 0.0010065311 -0.0013581312 -0.00021772925 -0.0013352865 0.0041462965 -0.0023986422 -0.0013552171 0.00080027105 0.00022411486 -0.0031259698 0.0006328309 -0.0033644605 -0.0017370265 -0.0047501493 0.003914796 0.0031624902 -0.00206284 0.0024137655 0.0025952486 -0.0018427735 0.0020458852 -0.0045600072 -0.002645201 0.00065931305 -0.0016050905 -0.00039370637 -0.0022878628 0.000916407 -0.003655212 0.0023060394 0.003973549 -3.556907e-05 0.0026054094 -0.0038068783 0.0036136182 0.004168447 0.0019439971 -0.0010977555 -0.0046114568 -0.0011736269 -5.9114303e-05 -0.0032988572 0.00013372954 -0.00012911204 -0.004600033 -0.0013287002 0.0012092758 0.0011403738 0.0001195604 0.0021356512 -0.0030474267 0.003072259 0.0022554882 0.0041704495 0.004066781 -0.0024572646 0.0031672847 0.0035273964 -0.00029212236 -0.002743504 0.0037953202 -0.0018884069 0.004131226 0.0023129182 0.0046560476 -0.00019557541 -0.0013027191 0.00058465125 0.004459285 0.004345717 -0.0018375134 -0.0042208205 -0.0006878362 0.0034691198 0.003095298 -0.0030535827 0.0049881656 0.0020354628
